#pragma once
#include <cstdarg>
namespace Eloquent {
    namespace ML {
        namespace Port {
            class RandomForest {
                public:
                    /**
                    * Predict class for features vector
                    */
                    int predict(float *x) {
                        uint8_t votes[6] = { 0 };
                        // tree #1
                        if (x[5] <= -8.560800075531006) {
                            if (x[3] <= 19.90250015258789) {
                                if (x[2] <= 0.25333333760499954) {
                                    if (x[0] <= -0.11125000193715096) {
                                        if (x[2] <= -0.33000001311302185) {
                                            if (x[2] <= -0.4137500077486038) {
                                                votes[0] += 1;
                                            }

                                            else {
                                                if (x[1] <= 0.8419166505336761) {
                                                    if (x[1] <= 0.6386666893959045) {
                                                        votes[1] += 1;
                                                    }

                                                    else {
                                                        if (x[0] <= -0.32091666758060455) {
                                                            votes[1] += 1;
                                                        }

                                                        else {
                                                            votes[0] += 1;
                                                        }
                                                    }
                                                }

                                                else {
                                                    votes[1] += 1;
                                                }
                                            }
                                        }

                                        else {
                                            if (x[2] <= -0.18299999833106995) {
                                                if (x[1] <= 1.0148333609104156) {
                                                    votes[1] += 1;
                                                }

                                                else {
                                                    if (x[3] <= 2.597599983215332) {
                                                        votes[0] += 1;
                                                    }

                                                    else {
                                                        votes[1] += 1;
                                                    }
                                                }
                                            }

                                            else {
                                                if (x[1] <= 0.8715833425521851) {
                                                    if (x[4] <= -12.365799903869629) {
                                                        if (x[5] <= -14.707300186157227) {
                                                            votes[0] += 1;
                                                        }

                                                        else {
                                                            votes[1] += 1;
                                                        }
                                                    }

                                                    else {
                                                        if (x[0] <= -0.5541666746139526) {
                                                            votes[5] += 1;
                                                        }

                                                        else {
                                                            if (x[5] <= -38.95719909667969) {
                                                                if (x[1] <= 0.8272500038146973) {
                                                                    votes[1] += 1;
                                                                }

                                                                else {
                                                                    votes[0] += 1;
                                                                }
                                                            }

                                                            else {
                                                                if (x[5] <= -10.457199573516846) {
                                                                    votes[1] += 1;
                                                                }

                                                                else {
                                                                    if (x[3] <= 10.560999870300293) {
                                                                        votes[1] += 1;
                                                                    }

                                                                    else {
                                                                        votes[0] += 1;
                                                                    }
                                                                }
                                                            }
                                                        }
                                                    }
                                                }

                                                else {
                                                    if (x[2] <= -0.1028333343565464) {
                                                        if (x[4] <= -2.987600088119507) {
                                                            votes[1] += 1;
                                                        }

                                                        else {
                                                            if (x[3] <= -12.34149980545044) {
                                                                votes[1] += 1;
                                                            }

                                                            else {
                                                                if (x[2] <= -0.17416666448116302) {
                                                                    if (x[2] <= -0.17650000005960464) {
                                                                        votes[0] += 1;
                                                                    }

                                                                    else {
                                                                        votes[1] += 1;
                                                                    }
                                                                }

                                                                else {
                                                                    if (x[4] <= 11.652400016784668) {
                                                                        if (x[0] <= -0.23533333092927933) {
                                                                            votes[1] += 1;
                                                                        }

                                                                        else {
                                                                            votes[0] += 1;
                                                                        }
                                                                    }

                                                                    else {
                                                                        votes[0] += 1;
                                                                    }
                                                                }
                                                            }
                                                        }
                                                    }

                                                    else {
                                                        if (x[4] <= 3.786500096321106) {
                                                            if (x[2] <= -0.08633333072066307) {
                                                                if (x[2] <= -0.09050000086426735) {
                                                                    votes[1] += 1;
                                                                }

                                                                else {
                                                                    votes[0] += 1;
                                                                }
                                                            }

                                                            else {
                                                                if (x[1] <= 0.8804166615009308) {
                                                                    if (x[5] <= -19.28030014038086) {
                                                                        votes[1] += 1;
                                                                    }

                                                                    else {
                                                                        if (x[2] <= -0.019000000786036253) {
                                                                            votes[1] += 1;
                                                                        }

                                                                        else {
                                                                            votes[0] += 1;
                                                                        }
                                                                    }
                                                                }

                                                                else {
                                                                    votes[1] += 1;
                                                                }
                                                            }
                                                        }

                                                        else {
                                                            if (x[0] <= -0.3178333342075348) {
                                                                votes[1] += 1;
                                                            }

                                                            else {
                                                                if (x[5] <= -31.37209987640381) {
                                                                    if (x[4] <= 36.50010108947754) {
                                                                        votes[1] += 1;
                                                                    }

                                                                    else {
                                                                        votes[0] += 1;
                                                                    }
                                                                }

                                                                else {
                                                                    votes[0] += 1;
                                                                }
                                                            }
                                                        }
                                                    }
                                                }
                                            }
                                        }
                                    }

                                    else {
                                        if (x[1] <= 0.5384999960660934) {
                                            if (x[0] <= 0.3502499982714653) {
                                                if (x[1] <= -0.726250022649765) {
                                                    if (x[2] <= -0.08300000056624413) {
                                                        if (x[1] <= -1.222499966621399) {
                                                            if (x[3] <= 10.731799840927124) {
                                                                votes[2] += 1;
                                                            }

                                                            else {
                                                                votes[4] += 1;
                                                            }
                                                        }

                                                        else {
                                                            votes[2] += 1;
                                                        }
                                                    }

                                                    else {
                                                        if (x[2] <= 0.1704999953508377) {
                                                            if (x[1] <= -0.9424166679382324) {
                                                                votes[2] += 1;
                                                            }

                                                            else {
                                                                if (x[0] <= 0.009000000078231096) {
                                                                    votes[2] += 1;
                                                                }

                                                                else {
                                                                    if (x[3] <= -42.603599548339844) {
                                                                        votes[4] += 1;
                                                                    }

                                                                    else {
                                                                        if (x[4] <= 5.750100135803223) {
                                                                            votes[2] += 1;
                                                                        }

                                                                        else {
                                                                            votes[4] += 1;
                                                                        }
                                                                    }
                                                                }
                                                            }
                                                        }

                                                        else {
                                                            votes[4] += 1;
                                                        }
                                                    }
                                                }

                                                else {
                                                    if (x[4] <= -0.9758000373840332) {
                                                        votes[1] += 1;
                                                    }

                                                    else {
                                                        votes[4] += 1;
                                                    }
                                                }
                                            }

                                            else {
                                                votes[5] += 1;
                                            }
                                        }

                                        else {
                                            if (x[0] <= 0.04933333396911621) {
                                                if (x[1] <= 0.9095833599567413) {
                                                    votes[0] += 1;
                                                }

                                                else {
                                                    if (x[3] <= 13.036499977111816) {
                                                        if (x[2] <= -0.0820833332836628) {
                                                            votes[0] += 1;
                                                        }

                                                        else {
                                                            if (x[0] <= -0.020000000251457095) {
                                                                if (x[2] <= 0.08375000208616257) {
                                                                    votes[1] += 1;
                                                                }

                                                                else {
                                                                    votes[0] += 1;
                                                                }
                                                            }

                                                            else {
                                                                votes[0] += 1;
                                                            }
                                                        }
                                                    }

                                                    else {
                                                        if (x[2] <= -0.13100000470876694) {
                                                            votes[0] += 1;
                                                        }

                                                        else {
                                                            votes[1] += 1;
                                                        }
                                                    }
                                                }
                                            }

                                            else {
                                                if (x[4] <= -19.597500562667847) {
                                                    votes[5] += 1;
                                                }

                                                else {
                                                    votes[1] += 1;
                                                }
                                            }
                                        }
                                    }
                                }

                                else {
                                    if (x[0] <= 0.0872499980032444) {
                                        if (x[5] <= -11.591400146484375) {
                                            if (x[0] <= -0.007583333179354668) {
                                                votes[1] += 1;
                                            }

                                            else {
                                                if (x[0] <= 0.06199999898672104) {
                                                    votes[0] += 1;
                                                }

                                                else {
                                                    votes[1] += 1;
                                                }
                                            }
                                        }

                                        else {
                                            votes[2] += 1;
                                        }
                                    }

                                    else {
                                        if (x[2] <= 0.6146666705608368) {
                                            votes[5] += 1;
                                        }

                                        else {
                                            votes[3] += 1;
                                        }
                                    }
                                }
                            }

                            else {
                                if (x[0] <= -0.07483333349227905) {
                                    if (x[4] <= 56.63409996032715) {
                                        if (x[2] <= -0.3518333435058594) {
                                            if (x[3] <= 24.286499977111816) {
                                                if (x[0] <= -0.2809999957680702) {
                                                    votes[1] += 1;
                                                }

                                                else {
                                                    votes[0] += 1;
                                                }
                                            }

                                            else {
                                                if (x[4] <= -2.274500072002411) {
                                                    if (x[0] <= -0.2615000009536743) {
                                                        votes[1] += 1;
                                                    }

                                                    else {
                                                        votes[0] += 1;
                                                    }
                                                }

                                                else {
                                                    votes[1] += 1;
                                                }
                                            }
                                        }

                                        else {
                                            if (x[0] <= -0.5995000004768372) {
                                                votes[5] += 1;
                                            }

                                            else {
                                                if (x[0] <= -0.12816666811704636) {
                                                    if (x[2] <= 0.2291666641831398) {
                                                        if (x[3] <= 32.91460037231445) {
                                                            if (x[3] <= 32.71339988708496) {
                                                                if (x[2] <= -0.032500000670552254) {
                                                                    if (x[0] <= -0.1850833296775818) {
                                                                        votes[1] += 1;
                                                                    }

                                                                    else {
                                                                        if (x[5] <= -9.006200313568115) {
                                                                            votes[1] += 1;
                                                                        }

                                                                        else {
                                                                            votes[0] += 1;
                                                                        }
                                                                    }
                                                                }

                                                                else {
                                                                    if (x[1] <= 1.2318333387374878) {
                                                                        if (x[2] <= -0.002500000409781933) {
                                                                            votes[0] += 1;
                                                                        }

                                                                        else {
                                                                            if (x[1] <= 0.87049999833107) {
                                                                                if (x[4] <= -7.542600125074387) {
                                                                                    votes[1] += 1;
                                                                                }

                                                                                else {
                                                                                    votes[0] += 1;
                                                                                }
                                                                            }

                                                                            else {
                                                                                votes[1] += 1;
                                                                            }
                                                                        }
                                                                    }

                                                                    else {
                                                                        votes[0] += 1;
                                                                    }
                                                                }
                                                            }

                                                            else {
                                                                votes[0] += 1;
                                                            }
                                                        }

                                                        else {
                                                            votes[1] += 1;
                                                        }
                                                    }

                                                    else {
                                                        votes[0] += 1;
                                                    }
                                                }

                                                else {
                                                    if (x[2] <= -0.08883333578705788) {
                                                        if (x[5] <= -21.073100090026855) {
                                                            if (x[3] <= 27.737799644470215) {
                                                                if (x[3] <= 23.225699424743652) {
                                                                    votes[1] += 1;
                                                                }

                                                                else {
                                                                    votes[0] += 1;
                                                                }
                                                            }

                                                            else {
                                                                votes[1] += 1;
                                                            }
                                                        }

                                                        else {
                                                            votes[0] += 1;
                                                        }
                                                    }

                                                    else {
                                                        votes[1] += 1;
                                                    }
                                                }
                                            }
                                        }
                                    }

                                    else {
                                        votes[5] += 1;
                                    }
                                }

                                else {
                                    if (x[1] <= -1.0320000052452087) {
                                        if (x[2] <= 0.37174998223781586) {
                                            if (x[1] <= -1.0828332901000977) {
                                                votes[4] += 1;
                                            }

                                            else {
                                                if (x[4] <= 0.07330000400543213) {
                                                    votes[4] += 1;
                                                }

                                                else {
                                                    votes[2] += 1;
                                                }
                                            }
                                        }

                                        else {
                                            votes[5] += 1;
                                        }
                                    }

                                    else {
                                        if (x[2] <= -0.021083333529531956) {
                                            if (x[1] <= 0.3922499865293503) {
                                                if (x[3] <= 41.073201179504395) {
                                                    votes[1] += 1;
                                                }

                                                else {
                                                    votes[2] += 1;
                                                }
                                            }

                                            else {
                                                votes[0] += 1;
                                            }
                                        }

                                        else {
                                            if (x[0] <= 0.13300000131130219) {
                                                if (x[1] <= 0.033833324909210205) {
                                                    if (x[4] <= -3.6584999561309814) {
                                                        if (x[1] <= -0.8878333270549774) {
                                                            votes[2] += 1;
                                                        }

                                                        else {
                                                            votes[5] += 1;
                                                        }
                                                    }

                                                    else {
                                                        votes[4] += 1;
                                                    }
                                                }

                                                else {
                                                    if (x[0] <= -0.003833333496004343) {
                                                        votes[1] += 1;
                                                    }

                                                    else {
                                                        if (x[4] <= -0.8107995986938477) {
                                                            votes[1] += 1;
                                                        }

                                                        else {
                                                            if (x[3] <= 34.18909931182861) {
                                                                votes[0] += 1;
                                                            }

                                                            else {
                                                                votes[1] += 1;
                                                            }
                                                        }
                                                    }
                                                }
                                            }

                                            else {
                                                if (x[2] <= 0.2955833375453949) {
                                                    if (x[0] <= 0.249916672706604) {
                                                        if (x[4] <= -34.231600761413574) {
                                                            votes[2] += 1;
                                                        }

                                                        else {
                                                            votes[4] += 1;
                                                        }
                                                    }

                                                    else {
                                                        votes[5] += 1;
                                                    }
                                                }

                                                else {
                                                    if (x[0] <= 0.3115833252668381) {
                                                        votes[5] += 1;
                                                    }

                                                    else {
                                                        if (x[3] <= 43.35980033874512) {
                                                            votes[3] += 1;
                                                        }

                                                        else {
                                                            votes[5] += 1;
                                                        }
                                                    }
                                                }
                                            }
                                        }
                                    }
                                }
                            }
                        }

                        else {
                            if (x[1] <= 0.18250000476837158) {
                                if (x[4] <= -26.56700038909912) {
                                    if (x[1] <= -1.0256666541099548) {
                                        if (x[4] <= -42.371700286865234) {
                                            if (x[0] <= 0.15083332918584347) {
                                                votes[2] += 1;
                                            }

                                            else {
                                                votes[5] += 1;
                                            }
                                        }

                                        else {
                                            votes[2] += 1;
                                        }
                                    }

                                    else {
                                        votes[5] += 1;
                                    }
                                }

                                else {
                                    if (x[5] <= 9.298799991607666) {
                                        if (x[0] <= 0.16866666078567505) {
                                            if (x[0] <= -0.014833332970738411) {
                                                if (x[1] <= -0.9182499945163727) {
                                                    if (x[5] <= -2.5612000226974487) {
                                                        if (x[3] <= 1.7379000186920166) {
                                                            if (x[1] <= -0.9676666855812073) {
                                                                votes[2] += 1;
                                                            }

                                                            else {
                                                                if (x[1] <= -0.9534166753292084) {
                                                                    votes[4] += 1;
                                                                }

                                                                else {
                                                                    if (x[1] <= -0.9447500109672546) {
                                                                        votes[2] += 1;
                                                                    }

                                                                    else {
                                                                        votes[4] += 1;
                                                                    }
                                                                }
                                                            }
                                                        }

                                                        else {
                                                            if (x[0] <= -0.048750000074505806) {
                                                                votes[4] += 1;
                                                            }

                                                            else {
                                                                if (x[4] <= -9.060999870300293) {
                                                                    votes[4] += 1;
                                                                }

                                                                else {
                                                                    if (x[0] <= -0.040833333507180214) {
                                                                        if (x[5] <= -3.9999998807907104) {
                                                                            votes[2] += 1;
                                                                        }

                                                                        else {
                                                                            votes[4] += 1;
                                                                        }
                                                                    }

                                                                    else {
                                                                        votes[2] += 1;
                                                                    }
                                                                }
                                                            }
                                                        }
                                                    }

                                                    else {
                                                        if (x[2] <= 0.003499999991618097) {
                                                            if (x[1] <= -1.278249979019165) {
                                                                votes[2] += 1;
                                                            }

                                                            else {
                                                                if (x[4] <= 0.823199987411499) {
                                                                    if (x[3] <= -8.195200204849243) {
                                                                        if (x[2] <= -0.08816666528582573) {
                                                                            votes[4] += 1;
                                                                        }

                                                                        else {
                                                                            votes[2] += 1;
                                                                        }
                                                                    }

                                                                    else {
                                                                        if (x[2] <= -0.1875) {
                                                                            votes[2] += 1;
                                                                        }

                                                                        else {
                                                                            if (x[1] <= -1.1690000295639038) {
                                                                                if (x[2] <= -0.10141666606068611) {
                                                                                    if (x[1] <= -1.1722500324249268) {
                                                                                        if (x[3] <= 3.3719000816345215) {
                                                                                            votes[4] += 1;
                                                                                        }

                                                                                        else {
                                                                                            if (x[0] <= -0.032500000670552254) {
                                                                                                votes[4] += 1;
                                                                                            }

                                                                                            else {
                                                                                                votes[2] += 1;
                                                                                            }
                                                                                        }
                                                                                    }

                                                                                    else {
                                                                                        votes[2] += 1;
                                                                                    }
                                                                                }

                                                                                else {
                                                                                    if (x[4] <= -4.133999824523926) {
                                                                                        if (x[5] <= 3.414499904960394) {
                                                                                            if (x[0] <= -0.02324999962002039) {
                                                                                                votes[2] += 1;
                                                                                            }

                                                                                            else {
                                                                                                votes[4] += 1;
                                                                                            }
                                                                                        }

                                                                                        else {
                                                                                            votes[4] += 1;
                                                                                        }
                                                                                    }

                                                                                    else {
                                                                                        votes[2] += 1;
                                                                                    }
                                                                                }
                                                                            }

                                                                            else {
                                                                                if (x[4] <= -7.603600025177002) {
                                                                                    if (x[1] <= -1.14983332157135) {
                                                                                        votes[2] += 1;
                                                                                    }

                                                                                    else {
                                                                                        if (x[5] <= 1.9023000001907349) {
                                                                                            votes[4] += 1;
                                                                                        }

                                                                                        else {
                                                                                            votes[2] += 1;
                                                                                        }
                                                                                    }
                                                                                }

                                                                                else {
                                                                                    if (x[1] <= -0.9767500162124634) {
                                                                                        votes[4] += 1;
                                                                                    }

                                                                                    else {
                                                                                        if (x[3] <= -0.9757000207901001) {
                                                                                            votes[2] += 1;
                                                                                        }

                                                                                        else {
                                                                                            if (x[1] <= -0.9755000174045563) {
                                                                                                votes[2] += 1;
                                                                                            }

                                                                                            else {
                                                                                                votes[4] += 1;
                                                                                            }
                                                                                        }
                                                                                    }
                                                                                }
                                                                            }
                                                                        }
                                                                    }
                                                                }

                                                                else {
                                                                    if (x[2] <= -0.09041666612029076) {
                                                                        if (x[5] <= 5.575099945068359) {
                                                                            votes[2] += 1;
                                                                        }

                                                                        else {
                                                                            if (x[5] <= 5.959100008010864) {
                                                                                votes[4] += 1;
                                                                            }

                                                                            else {
                                                                                votes[2] += 1;
                                                                            }
                                                                        }
                                                                    }

                                                                    else {
                                                                        if (x[4] <= 1.3476999998092651) {
                                                                            votes[2] += 1;
                                                                        }

                                                                        else {
                                                                            if (x[2] <= -0.07050000131130219) {
                                                                                if (x[4] <= 4.353799939155579) {
                                                                                    votes[4] += 1;
                                                                                }

                                                                                else {
                                                                                    votes[2] += 1;
                                                                                }
                                                                            }

                                                                            else {
                                                                                votes[4] += 1;
                                                                            }
                                                                        }
                                                                    }
                                                                }
                                                            }
                                                        }

                                                        else {
                                                            if (x[4] <= 2.25600004196167) {
                                                                votes[2] += 1;
                                                            }

                                                            else {
                                                                votes[4] += 1;
                                                            }
                                                        }
                                                    }
                                                }

                                                else {
                                                    if (x[3] <= -9.859699726104736) {
                                                        if (x[4] <= -1.6097999811172485) {
                                                            if (x[2] <= 0.24683333188295364) {
                                                                votes[2] += 1;
                                                            }

                                                            else {
                                                                votes[4] += 1;
                                                            }
                                                        }

                                                        else {
                                                            votes[2] += 1;
                                                        }
                                                    }

                                                    else {
                                                        if (x[4] <= 4.86589989066124) {
                                                            if (x[3] <= 34.73160004615784) {
                                                                if (x[1] <= -0.6347500085830688) {
                                                                    votes[2] += 1;
                                                                }

                                                                else {
                                                                    votes[4] += 1;
                                                                }
                                                            }

                                                            else {
                                                                votes[2] += 1;
                                                            }
                                                        }

                                                        else {
                                                            votes[2] += 1;
                                                        }
                                                    }
                                                }
                                            }

                                            else {
                                                if (x[0] <= 0.13100000470876694) {
                                                    if (x[5] <= -5.33519983291626) {
                                                        if (x[3] <= 12.957200527191162) {
                                                            if (x[1] <= -0.5684166699647903) {
                                                                if (x[2] <= -0.012500000186264515) {
                                                                    if (x[2] <= -0.04424999840557575) {
                                                                        votes[2] += 1;
                                                                    }

                                                                    else {
                                                                        votes[4] += 1;
                                                                    }
                                                                }

                                                                else {
                                                                    votes[2] += 1;
                                                                }
                                                            }

                                                            else {
                                                                votes[4] += 1;
                                                            }
                                                        }

                                                        else {
                                                            votes[4] += 1;
                                                        }
                                                    }

                                                    else {
                                                        if (x[1] <= -0.5253333151340485) {
                                                            if (x[3] <= 30.103500366210938) {
                                                                if (x[4] <= 1.1402999758720398) {
                                                                    if (x[0] <= -0.004416666459292173) {
                                                                        if (x[4] <= -1.1768999993801117) {
                                                                            if (x[2] <= -0.0331666674464941) {
                                                                                if (x[5] <= -0.5185000151395798) {
                                                                                    if (x[4] <= -3.981600046157837) {
                                                                                        votes[2] += 1;
                                                                                    }

                                                                                    else {
                                                                                        votes[4] += 1;
                                                                                    }
                                                                                }

                                                                                else {
                                                                                    if (x[4] <= -8.47570013999939) {
                                                                                        if (x[1] <= -1.050583302974701) {
                                                                                            votes[2] += 1;
                                                                                        }

                                                                                        else {
                                                                                            votes[4] += 1;
                                                                                        }
                                                                                    }

                                                                                    else {
                                                                                        votes[4] += 1;
                                                                                    }
                                                                                }
                                                                            }

                                                                            else {
                                                                                if (x[4] <= -3.2865999937057495) {
                                                                                    votes[2] += 1;
                                                                                }

                                                                                else {
                                                                                    if (x[1] <= -0.9828333556652069) {
                                                                                        votes[2] += 1;
                                                                                    }

                                                                                    else {
                                                                                        votes[4] += 1;
                                                                                    }
                                                                                }
                                                                            }
                                                                        }

                                                                        else {
                                                                            if (x[4] <= 0.5060999989509583) {
                                                                                votes[2] += 1;
                                                                            }

                                                                            else {
                                                                                votes[4] += 1;
                                                                            }
                                                                        }
                                                                    }

                                                                    else {
                                                                        if (x[2] <= -0.09950000047683716) {
                                                                            if (x[0] <= 0.12533333152532578) {
                                                                                if (x[5] <= 4.146299839019775) {
                                                                                    votes[2] += 1;
                                                                                }

                                                                                else {
                                                                                    if (x[2] <= -0.12124999612569809) {
                                                                                        votes[2] += 1;
                                                                                    }

                                                                                    else {
                                                                                        if (x[4] <= -1.3415000140666962) {
                                                                                            votes[2] += 1;
                                                                                        }

                                                                                        else {
                                                                                            votes[4] += 1;
                                                                                        }
                                                                                    }
                                                                                }
                                                                            }

                                                                            else {
                                                                                if (x[4] <= -5.371899843215942) {
                                                                                    votes[2] += 1;
                                                                                }

                                                                                else {
                                                                                    votes[4] += 1;
                                                                                }
                                                                            }
                                                                        }

                                                                        else {
                                                                            if (x[0] <= 0.0872499980032444) {
                                                                                if (x[3] <= -0.9876999855041504) {
                                                                                    if (x[5] <= 6.445199966430664) {
                                                                                        if (x[2] <= -0.07183333486318588) {
                                                                                            if (x[3] <= -1.999899983406067) {
                                                                                                votes[2] += 1;
                                                                                            }

                                                                                            else {
                                                                                                votes[4] += 1;
                                                                                            }
                                                                                        }

                                                                                        else {
                                                                                            votes[2] += 1;
                                                                                        }
                                                                                    }

                                                                                    else {
                                                                                        if (x[3] <= -6.914499998092651) {
                                                                                            votes[2] += 1;
                                                                                        }

                                                                                        else {
                                                                                            votes[4] += 1;
                                                                                        }
                                                                                    }
                                                                                }

                                                                                else {
                                                                                    if (x[3] <= 1.9146000742912292) {
                                                                                        if (x[4] <= -2.402500033378601) {
                                                                                            if (x[3] <= -0.7501000165939331) {
                                                                                                votes[4] += 1;
                                                                                            }

                                                                                            else {
                                                                                                if (x[4] <= -2.908600091934204) {
                                                                                                    if (x[4] <= -4.0) {
                                                                                                        if (x[1] <= -1.007750004529953) {
                                                                                                            votes[2] += 1;
                                                                                                        }

                                                                                                        else {
                                                                                                            votes[4] += 1;
                                                                                                        }
                                                                                                    }

                                                                                                    else {
                                                                                                        votes[4] += 1;
                                                                                                    }
                                                                                                }

                                                                                                else {
                                                                                                    votes[2] += 1;
                                                                                                }
                                                                                            }
                                                                                        }

                                                                                        else {
                                                                                            if (x[1] <= -0.9449999928474426) {
                                                                                                votes[4] += 1;
                                                                                            }

                                                                                            else {
                                                                                                votes[2] += 1;
                                                                                            }
                                                                                        }
                                                                                    }

                                                                                    else {
                                                                                        if (x[1] <= -1.006583333015442) {
                                                                                            if (x[4] <= -4.987799882888794) {
                                                                                                if (x[2] <= -0.04333333298563957) {
                                                                                                    if (x[0] <= 0.012000000104308128) {
                                                                                                        votes[4] += 1;
                                                                                                    }

                                                                                                    else {
                                                                                                        votes[2] += 1;
                                                                                                    }
                                                                                                }

                                                                                                else {
                                                                                                    if (x[2] <= -0.030166666954755783) {
                                                                                                        votes[4] += 1;
                                                                                                    }

                                                                                                    else {
                                                                                                        votes[2] += 1;
                                                                                                    }
                                                                                                }
                                                                                            }

                                                                                            else {
                                                                                                votes[2] += 1;
                                                                                            }
                                                                                        }

                                                                                        else {
                                                                                            if (x[2] <= 0.16499999910593033) {
                                                                                                votes[4] += 1;
                                                                                            }

                                                                                            else {
                                                                                                if (x[5] <= 8.23769998550415) {
                                                                                                    if (x[1] <= -0.7325833439826965) {
                                                                                                        votes[2] += 1;
                                                                                                    }

                                                                                                    else {
                                                                                                        if (x[5] <= 4.048799991607666) {
                                                                                                            votes[4] += 1;
                                                                                                        }

                                                                                                        else {
                                                                                                            votes[2] += 1;
                                                                                                        }
                                                                                                    }
                                                                                                }

                                                                                                else {
                                                                                                    if (x[4] <= -14.213499784469604) {
                                                                                                        votes[4] += 1;
                                                                                                    }

                                                                                                    else {
                                                                                                        votes[2] += 1;
                                                                                                    }
                                                                                                }
                                                                                            }
                                                                                        }
                                                                                    }
                                                                                }
                                                                            }

                                                                            else {
                                                                                if (x[1] <= -0.9441666603088379) {
                                                                                    if (x[3] <= 5.280400037765503) {
                                                                                        if (x[5] <= -0.20110000297427177) {
                                                                                            if (x[4] <= -1.3414999544620514) {
                                                                                                votes[4] += 1;
                                                                                            }

                                                                                            else {
                                                                                                votes[2] += 1;
                                                                                            }
                                                                                        }

                                                                                        else {
                                                                                            votes[2] += 1;
                                                                                        }
                                                                                    }

                                                                                    else {
                                                                                        if (x[4] <= -3.079300105571747) {
                                                                                            votes[4] += 1;
                                                                                        }

                                                                                        else {
                                                                                            if (x[0] <= 0.0964166671037674) {
                                                                                                votes[2] += 1;
                                                                                            }

                                                                                            else {
                                                                                                votes[4] += 1;
                                                                                            }
                                                                                        }
                                                                                    }
                                                                                }

                                                                                else {
                                                                                    if (x[3] <= -4.085400104522705) {
                                                                                        votes[2] += 1;
                                                                                    }

                                                                                    else {
                                                                                        votes[4] += 1;
                                                                                    }
                                                                                }
                                                                            }
                                                                        }
                                                                    }
                                                                }

                                                                else {
                                                                    if (x[0] <= 0.021750000305473804) {
                                                                        if (x[4] <= 2.103700041770935) {
                                                                            if (x[4] <= 2.0427000522613525) {
                                                                                votes[2] += 1;
                                                                            }

                                                                            else {
                                                                                votes[4] += 1;
                                                                            }
                                                                        }

                                                                        else {
                                                                            votes[2] += 1;
                                                                        }
                                                                    }

                                                                    else {
                                                                        if (x[4] <= 3.8292999267578125) {
                                                                            if (x[1] <= -0.7906666398048401) {
                                                                                if (x[2] <= -0.09075000137090683) {
                                                                                    votes[2] += 1;
                                                                                }

                                                                                else {
                                                                                    if (x[2] <= 0.15016666799783707) {
                                                                                        if (x[0] <= 0.050833333283662796) {
                                                                                            votes[4] += 1;
                                                                                        }

                                                                                        else {
                                                                                            if (x[0] <= 0.06441666558384895) {
                                                                                                if (x[4] <= 2.542799949645996) {
                                                                                                    votes[2] += 1;
                                                                                                }

                                                                                                else {
                                                                                                    if (x[0] <= 0.05483333393931389) {
                                                                                                        votes[2] += 1;
                                                                                                    }

                                                                                                    else {
                                                                                                        votes[4] += 1;
                                                                                                    }
                                                                                                }
                                                                                            }

                                                                                            else {
                                                                                                votes[4] += 1;
                                                                                            }
                                                                                        }
                                                                                    }

                                                                                    else {
                                                                                        votes[2] += 1;
                                                                                    }
                                                                                }
                                                                            }

                                                                            else {
                                                                                votes[4] += 1;
                                                                            }
                                                                        }

                                                                        else {
                                                                            if (x[3] <= -15.036699771881104) {
                                                                                if (x[2] <= 0.23674999922513962) {
                                                                                    if (x[0] <= 0.04450000077486038) {
                                                                                        if (x[1] <= -0.7326666712760925) {
                                                                                            votes[2] += 1;
                                                                                        }

                                                                                        else {
                                                                                            votes[4] += 1;
                                                                                        }
                                                                                    }

                                                                                    else {
                                                                                        votes[4] += 1;
                                                                                    }
                                                                                }

                                                                                else {
                                                                                    if (x[1] <= -0.7305000126361847) {
                                                                                        votes[2] += 1;
                                                                                    }

                                                                                    else {
                                                                                        votes[4] += 1;
                                                                                    }
                                                                                }
                                                                            }

                                                                            else {
                                                                                if (x[2] <= 0.028833333402872086) {
                                                                                    if (x[2] <= -0.0664166659116745) {
                                                                                        votes[2] += 1;
                                                                                    }

                                                                                    else {
                                                                                        if (x[0] <= 0.03374999947845936) {
                                                                                            if (x[3] <= -4.853499889373779) {
                                                                                                votes[4] += 1;
                                                                                            }

                                                                                            else {
                                                                                                votes[2] += 1;
                                                                                            }
                                                                                        }

                                                                                        else {
                                                                                            votes[2] += 1;
                                                                                        }
                                                                                    }
                                                                                }

                                                                                else {
                                                                                    if (x[5] <= 2.0000000596046448) {
                                                                                        if (x[4] <= 6.207199811935425) {
                                                                                            votes[4] += 1;
                                                                                        }

                                                                                        else {
                                                                                            votes[2] += 1;
                                                                                        }
                                                                                    }

                                                                                    else {
                                                                                        votes[2] += 1;
                                                                                    }
                                                                                }
                                                                            }
                                                                        }
                                                                    }
                                                                }
                                                            }

                                                            else {
                                                                votes[2] += 1;
                                                            }
                                                        }

                                                        else {
                                                            votes[4] += 1;
                                                        }
                                                    }
                                                }

                                                else {
                                                    if (x[2] <= 0.05066666752099991) {
                                                        if (x[3] <= 15.012200355529785) {
                                                            votes[2] += 1;
                                                        }

                                                        else {
                                                            if (x[1] <= -1.2172500491142273) {
                                                                votes[4] += 1;
                                                            }

                                                            else {
                                                                votes[2] += 1;
                                                            }
                                                        }
                                                    }

                                                    else {
                                                        if (x[1] <= -0.8708333373069763) {
                                                            votes[4] += 1;
                                                        }

                                                        else {
                                                            if (x[4] <= 12.006100177764893) {
                                                                votes[4] += 1;
                                                            }

                                                            else {
                                                                votes[5] += 1;
                                                            }
                                                        }
                                                    }
                                                }
                                            }
                                        }

                                        else {
                                            if (x[5] <= 4.95110011100769) {
                                                if (x[1] <= -0.4827499985694885) {
                                                    if (x[3] <= 17.262499809265137) {
                                                        votes[5] += 1;
                                                    }

                                                    else {
                                                        if (x[3] <= 45.99379920959473) {
                                                            votes[4] += 1;
                                                        }

                                                        else {
                                                            votes[5] += 1;
                                                        }
                                                    }
                                                }

                                                else {
                                                    votes[5] += 1;
                                                }
                                            }

                                            else {
                                                if (x[4] <= -21.835399627685547) {
                                                    votes[2] += 1;
                                                }

                                                else {
                                                    if (x[0] <= 0.21266666799783707) {
                                                        if (x[5] <= 7.2683000564575195) {
                                                            votes[5] += 1;
                                                        }

                                                        else {
                                                            votes[2] += 1;
                                                        }
                                                    }

                                                    else {
                                                        votes[5] += 1;
                                                    }
                                                }
                                            }
                                        }
                                    }

                                    else {
                                        if (x[4] <= 23.127999305725098) {
                                            if (x[2] <= 0.2861666679382324) {
                                                if (x[3] <= -6.3719000816345215) {
                                                    if (x[2] <= -0.08616666495800018) {
                                                        if (x[0] <= 0.018333333544433117) {
                                                            votes[4] += 1;
                                                        }

                                                        else {
                                                            votes[2] += 1;
                                                        }
                                                    }

                                                    else {
                                                        votes[4] += 1;
                                                    }
                                                }

                                                else {
                                                    if (x[2] <= 0.10875000059604645) {
                                                        if (x[3] <= 90.54879760742188) {
                                                            if (x[4] <= 0.591499999165535) {
                                                                if (x[3] <= -2.1768000721931458) {
                                                                    votes[4] += 1;
                                                                }

                                                                else {
                                                                    votes[2] += 1;
                                                                }
                                                            }

                                                            else {
                                                                votes[2] += 1;
                                                            }
                                                        }

                                                        else {
                                                            votes[5] += 1;
                                                        }
                                                    }

                                                    else {
                                                        if (x[0] <= 0.19233333319425583) {
                                                            if (x[4] <= 1.8536999821662903) {
                                                                if (x[3] <= 37.4084997177124) {
                                                                    votes[4] += 1;
                                                                }

                                                                else {
                                                                    votes[2] += 1;
                                                                }
                                                            }

                                                            else {
                                                                if (x[2] <= 0.17400000244379044) {
                                                                    votes[4] += 1;
                                                                }

